Language model created by QuickLM on Thu Dec 29 14:30:32 EST 2022
Copyright (c) 1996-2010 Carnegie Mellon University and Alexander I. Rudnicky

The model is in standard ARPA format, designed by Doug Paul while he was at MITRE.

The code that was used to produce this language model is available in Open Source.
Please visit http://www.speech.cs.cmu.edu/tools/ for more information

The (fixed) discount mass is 0.5. The backoffs are computed using the ratio method.
This model based on a corpus of 10 sentences and 21 words

\data\
ngram 1=21
ngram 2=32
ngram 3=25

\1-grams:
-0.9542 </s> -0.3010
-0.9542 <s> -0.2389
-1.9542 BACK -0.2499
-1.9542 COMMANDS -0.2499
-1.9542 EMERGENCY -0.2962
-1.9542 FACTS -0.2499
-1.9542 FIND -0.2962
-1.9542 GO -0.2863
-1.9542 HELPFUL -0.2962
-1.9542 HOME -0.2499
-1.9542 IN -0.2962
-1.9542 NEAREST -0.2863
-1.9542 RECEIVE -0.2962
-1.9542 SERVICES -0.2499
-1.4771 SHELTER -0.2444
-1.6532 SHELTERS -0.2499
-1.6532 SHOW -0.2863
-1.9542 START -0.2499
-1.9542 TAKE -0.2863
-1.4771 TO -0.2711
-1.9542 WHAT -0.2863

\2-grams:
-1.3010 <s> BACK 0.0000
-1.3010 <s> EMERGENCY 0.0000
-1.3010 <s> FIND 0.0000
-1.3010 <s> GO 0.0000
-1.3010 <s> RECEIVE 0.0000
-1.3010 <s> SHELTER -0.2218
-1.0000 <s> SHOW 0.0000
-1.3010 <s> START 0.0000
-1.3010 <s> WHAT 0.0000
-0.3010 BACK </s> -0.3010
-0.3010 COMMANDS </s> -0.3010
-0.3010 EMERGENCY SERVICES 0.0000
-0.3010 FACTS </s> -0.3010
-0.3010 FIND NEAREST 0.0000
-0.3010 GO TO -0.2218
-0.3010 HELPFUL FACTS 0.0000
-0.3010 HOME </s> -0.3010
-0.3010 IN HOME 0.0000
-0.3010 NEAREST SHELTER -0.1249
-0.3010 RECEIVE HELPFUL 0.0000
-0.3010 SERVICES </s> -0.3010
-0.4771 SHELTER </s> -0.3010
-0.7782 SHELTER IN 0.0000
-0.3010 SHELTERS </s> -0.3010
-0.6021 SHOW COMMANDS 0.0000
-0.6021 SHOW SHELTERS 0.0000
-0.3010 START </s> -0.3010
-0.3010 TAKE TO -0.2218
-0.7782 TO SHELTER -0.1249
-0.7782 TO SHELTERS 0.0000
-0.7782 TO TAKE 0.0000
-0.3010 WHAT TO -0.2218

\3-grams:
-0.3010 <s> BACK </s>
-0.3010 <s> EMERGENCY SERVICES
-0.3010 <s> FIND NEAREST
-0.3010 <s> GO TO
-0.3010 <s> RECEIVE HELPFUL
-0.3010 <s> SHELTER IN
-0.6021 <s> SHOW COMMANDS
-0.6021 <s> SHOW SHELTERS
-0.3010 <s> START </s>
-0.3010 <s> WHAT TO
-0.3010 EMERGENCY SERVICES </s>
-0.3010 FIND NEAREST SHELTER
-0.3010 GO TO SHELTERS
-0.3010 HELPFUL FACTS </s>
-0.3010 IN HOME </s>
-0.3010 NEAREST SHELTER </s>
-0.3010 RECEIVE HELPFUL FACTS
-0.3010 SHELTER IN HOME
-0.3010 SHOW COMMANDS </s>
-0.3010 SHOW SHELTERS </s>
-0.3010 TAKE TO SHELTER
-0.3010 TO SHELTER </s>
-0.3010 TO SHELTERS </s>
-0.3010 TO TAKE TO
-0.3010 WHAT TO TAKE

\end\
