Language model created by QuickLM on Fri Dec 30 14:40:59 EST 2022
Copyright (c) 1996-2010 Carnegie Mellon University and Alexander I. Rudnicky

The model is in standard ARPA format, designed by Doug Paul while he was at MITRE.

The code that was used to produce this language model is available in Open Source.
Please visit http://www.speech.cs.cmu.edu/tools/ for more information

The (fixed) discount mass is 0.5. The backoffs are computed using the ratio method.
This model based on a corpus of 14 sentences and 27 words

\data\
ngram 1=27
ngram 2=42
ngram 3=34

\1-grams:
-0.9678 </s> -0.3010
-0.9678 <s> -0.2440
-2.1139 BACK -0.2515
-1.5119 BY -0.2875
-2.1139 COMMANDS -0.2515
-2.1139 ELECTRICITY -0.2515
-2.1139 EMERGENCY -0.2977
-2.1139 FACTS -0.2515
-1.5119 FILTER -0.2875
-2.1139 FIND -0.2977
-2.1139 FOOD -0.2515
-2.1139 GO -0.2909
-2.1139 HELPFUL -0.2977
-2.1139 HOME -0.2515
-2.1139 IN -0.2977
-2.1139 NEAREST -0.2909
-2.1139 RECEIVE -0.2977
-2.1139 SERVICES -0.2515
-1.6368 SHELTER -0.2478
-1.8129 SHELTERS -0.2515
-1.8129 SHOW -0.2909
-2.1139 START -0.2515
-2.1139 TAKE -0.2909
-1.6368 TO -0.2805
-2.1139 WATER -0.2515
-2.1139 WHAT -0.2909
-2.1139 WIFI -0.2515

\2-grams:
-1.4472 <s> BACK 0.0000
-1.4472 <s> EMERGENCY 0.0000
-0.8451 <s> FILTER 0.0000
-1.4472 <s> FIND 0.0000
-1.4472 <s> GO 0.0000
-1.4472 <s> RECEIVE 0.0000
-1.4472 <s> SHELTER -0.2218
-1.1461 <s> SHOW 0.0000
-1.4472 <s> START 0.0000
-1.4472 <s> WHAT 0.0000
-0.3010 BACK </s> -0.3010
-0.9031 BY ELECTRICITY 0.0000
-0.9031 BY FOOD 0.0000
-0.9031 BY WATER 0.0000
-0.9031 BY WIFI 0.0000
-0.3010 COMMANDS </s> -0.3010
-0.3010 ELECTRICITY </s> -0.3010
-0.3010 EMERGENCY SERVICES 0.0000
-0.3010 FACTS </s> -0.3010
-0.3010 FILTER BY 0.0000
-0.3010 FIND NEAREST 0.0000
-0.3010 FOOD </s> -0.3010
-0.3010 GO TO -0.2218
-0.3010 HELPFUL FACTS 0.0000
-0.3010 HOME </s> -0.3010
-0.3010 IN HOME 0.0000
-0.3010 NEAREST SHELTER -0.1249
-0.3010 RECEIVE HELPFUL 0.0000
-0.3010 SERVICES </s> -0.3010
-0.4771 SHELTER </s> -0.3010
-0.7782 SHELTER IN 0.0000
-0.3010 SHELTERS </s> -0.3010
-0.6021 SHOW COMMANDS 0.0000
-0.6021 SHOW SHELTERS 0.0000
-0.3010 START </s> -0.3010
-0.3010 TAKE TO -0.2218
-0.7782 TO SHELTER -0.1249
-0.7782 TO SHELTERS 0.0000
-0.7782 TO TAKE 0.0000
-0.3010 WATER </s> -0.3010
-0.3010 WHAT TO -0.2218
-0.3010 WIFI </s> -0.3010

\3-grams:
-0.3010 <s> BACK </s>
-0.3010 <s> EMERGENCY SERVICES
-0.3010 <s> FILTER BY
-0.3010 <s> FIND NEAREST
-0.3010 <s> GO TO
-0.3010 <s> RECEIVE HELPFUL
-0.3010 <s> SHELTER IN
-0.6021 <s> SHOW COMMANDS
-0.6021 <s> SHOW SHELTERS
-0.3010 <s> START </s>
-0.3010 <s> WHAT TO
-0.3010 BY ELECTRICITY </s>
-0.3010 BY FOOD </s>
-0.3010 BY WATER </s>
-0.3010 BY WIFI </s>
-0.3010 EMERGENCY SERVICES </s>
-0.9031 FILTER BY ELECTRICITY
-0.9031 FILTER BY FOOD
-0.9031 FILTER BY WATER
-0.9031 FILTER BY WIFI
-0.3010 FIND NEAREST SHELTER
-0.3010 GO TO SHELTERS
-0.3010 HELPFUL FACTS </s>
-0.3010 IN HOME </s>
-0.3010 NEAREST SHELTER </s>
-0.3010 RECEIVE HELPFUL FACTS
-0.3010 SHELTER IN HOME
-0.3010 SHOW COMMANDS </s>
-0.3010 SHOW SHELTERS </s>
-0.3010 TAKE TO SHELTER
-0.3010 TO SHELTER </s>
-0.3010 TO SHELTERS </s>
-0.3010 TO TAKE TO
-0.3010 WHAT TO TAKE

\end\
