Language model created by QuickLM on Wed Dec 28 08:52:33 EST 2022
Copyright (c) 1996-2010 Carnegie Mellon University and Alexander I. Rudnicky

The model is in standard ARPA format, designed by Doug Paul while he was at MITRE.

The code that was used to produce this language model is available in Open Source.
Please visit http://www.speech.cs.cmu.edu/tools/ for more information

The (fixed) discount mass is 0.5. The backoffs are computed using the ratio method.
This model based on a corpus of 11 sentences and 23 words

\data\
ngram 1=23
ngram 2=35
ngram 3=28

\1-grams:
-0.9672 </s> -0.3010
-0.9672 <s> -0.2418
-2.0086 BACK -0.2515
-2.0086 COMMANDS -0.2515
-2.0086 DON'T -0.2968
-2.0086 EMERGENCY -0.2968
-2.0086 FAQ -0.2515
-2.0086 FIND -0.2968
-1.7076 GO -0.2837
-2.0086 HOME -0.2515
-2.0086 IN -0.2968
-2.0086 NEAREST -0.2881
-2.0086 PLEASE -0.2968
-2.0086 REDEEM -0.2515
-2.0086 SERVICES -0.2515
-1.5315 SHELTER -0.2467
-1.7076 SHELTERS -0.2515
-1.7076 SHOW -0.2881
-2.0086 SIR -0.2968
-2.0086 START -0.2515
-2.0086 TAKE -0.2837
-1.4065 TO -0.2702
-2.0086 WHAT -0.2837

\2-grams:
-1.3424 <s> BACK 0.0000
-1.3424 <s> EMERGENCY 0.0000
-1.3424 <s> FIND 0.0000
-1.0414 <s> GO 0.0000
-1.3424 <s> SHELTER -0.2218
-1.0414 <s> SHOW 0.0000
-1.3424 <s> SIR 0.0000
-1.3424 <s> START 0.0000
-1.3424 <s> WHAT 0.0000
-0.3010 BACK </s> -0.3010
-0.3010 COMMANDS </s> -0.3010
-0.3010 DON'T REDEEM 0.0000
-0.3010 EMERGENCY SERVICES 0.0000
-0.3010 FAQ </s> -0.3010
-0.3010 FIND NEAREST 0.0000
-0.3010 GO TO -0.1761
-0.3010 HOME </s> -0.3010
-0.3010 IN HOME 0.0000
-0.3010 NEAREST SHELTER -0.1249
-0.3010 PLEASE DON'T 0.0000
-0.3010 REDEEM </s> -0.3010
-0.3010 SERVICES </s> -0.3010
-0.4771 SHELTER </s> -0.3010
-0.7782 SHELTER IN 0.0000
-0.3010 SHELTERS </s> -0.3010
-0.6021 SHOW COMMANDS 0.0000
-0.6021 SHOW SHELTERS 0.0000
-0.3010 SIR PLEASE 0.0000
-0.3010 START </s> -0.3010
-0.3010 TAKE TO -0.2430
-0.9031 TO FAQ 0.0000
-0.9031 TO SHELTER -0.1249
-0.9031 TO SHELTERS 0.0000
-0.9031 TO TAKE 0.0000
-0.3010 WHAT TO -0.2430

\3-grams:
-0.3010 <s> BACK </s>
-0.3010 <s> EMERGENCY SERVICES
-0.3010 <s> FIND NEAREST
-0.3010 <s> GO TO
-0.3010 <s> SHELTER IN
-0.6021 <s> SHOW COMMANDS
-0.6021 <s> SHOW SHELTERS
-0.3010 <s> SIR PLEASE
-0.3010 <s> START </s>
-0.3010 <s> WHAT TO
-0.3010 DON'T REDEEM </s>
-0.3010 EMERGENCY SERVICES </s>
-0.3010 FIND NEAREST SHELTER
-0.6021 GO TO FAQ
-0.6021 GO TO SHELTERS
-0.3010 IN HOME </s>
-0.3010 NEAREST SHELTER </s>
-0.3010 PLEASE DON'T REDEEM
-0.3010 SHELTER IN HOME
-0.3010 SHOW COMMANDS </s>
-0.3010 SHOW SHELTERS </s>
-0.3010 SIR PLEASE DON'T
-0.3010 TAKE TO SHELTER
-0.3010 TO FAQ </s>
-0.3010 TO SHELTER </s>
-0.3010 TO SHELTERS </s>
-0.3010 TO TAKE TO
-0.3010 WHAT TO TAKE

\end\
